<?xml version="1.0"?>
<opencv_storage>
<cascade>
  <stageType>BOOST</stageType>
  <featureType>HAAR</featureType>
  <height>24</height>
  <width>24</width>
  <stageParams>
    <boostType>GAB</boostType>
    <minHitRate>9.9500000476837158e-001</minHitRate>
    <maxFalseAlarm>5.0000000000000000e-001</maxFalseAlarm>
    <weightTrimRate>9.4999998807907104e-001</weightTrimRate>
    <maxDepth>1</maxDepth>
    <maxWeakCount>100</maxWeakCount></stageParams>
  <featureParams>
    <maxCatCount>0</maxCatCount>
    <featSize>1</featSize>
    <mode>BASIC</mode></featureParams>
  <stageNum>13</stageNum>
  <stages>
    <!-- stage 0 -->
    <_>
      <maxWeakCount>4</maxWeakCount>
      <stageThreshold>-2.3152797222137451e+000</stageThreshold>
      <weakClassifiers>
        <_>
          <internalNodes>
            0 -1 7 -3.4581311047077179e-002</internalNodes>
          <leafValues>
            3.7142857909202576e-001 -9.6719861030578613e-001</leafValues></_>
        <_>
          <internalNodes>
            0 -1 13 -1.8411430716514587e-001</internalNodes>
          <leafValues>
            6.3448363542556763e-001 -9.3016433715820313e-001</leafValues></_>
        <_>
          <internalNodes>
            0 -1 28 6.0050636529922485e-003</internalNodes>
          <leafValues>
            -9.1254174709320068e-001 5.4589116573333740e-001</leafValues></_>
        <_>
          <internalNodes>
            0 -1 9 -2.1955734118819237e-003</internalNodes>
          <leafValues>
            4.9462497234344482e-001 -8.8908028602600098e-001</leafValues></_></weakClassifiers></_>
    <!-- stage 1 -->
    <_>
      <maxWeakCount>3</maxWeakCount>
      <stageThreshold>-1.5761302709579468e+000</stageThreshold>
      <weakClassifiers>
        <_>
          <internalNodes>
            0 -1 17 4.3914332985877991e-002</internalNodes>
          <leafValues>
            -9.5800524950027466e-001 5.0344824790954590e-001</leafValues></_>
        <_>
          <internalNodes>
            0 -1 14 8.7311193346977234e-002</internalNodes>
          <leafValues>
            -9.6013450622558594e-001 2.7525770664215088e-001</leafValues></_>
        <_>
          <internalNodes>
            0 -1 40 1.4242514967918396e-002</internalNodes>
          <leafValues>
            -8.9338278770446777e-001 3.6457794904708862e-001</leafValues></_></weakClassifiers></_>
    <!-- stage 2 -->
    <_>
      <maxWeakCount>4</maxWeakCount>
      <stageThreshold>-2.4090228080749512e+000</stageThreshold>
      <weakClassifiers>
        <_>
          <internalNodes>
            0 -1 16 -1.5938067436218262e-001</internalNodes>
          <leafValues>
            -1.6104869544506073e-001 -9.5841032266616821e-001</leafValues></_>
        <_>
          <internalNodes>
            0 -1 29 3.7230984307825565e-003</internalNodes>
          <leafValues>
            -9.1757756471633911e-001 1.0002836585044861e-001</leafValues></_>
        <_>
          <internalNodes>
            0 -1 5 -5.5669888854026794e-002</internalNodes>
          <leafValues>
            3.0057299137115479e-001 -9.0084081888198853e-001</leafValues></_>
        <_>
          <internalNodes>
            0 -1 36 6.0746185481548309e-002</internalNodes>
          <leafValues>
            3.6780595779418945e-001 -9.7787314653396606e-001</leafValues></_></weakClassifiers></_>
    <!-- stage 3 -->
    <_>
      <maxWeakCount>4</maxWeakCount>
      <stageThreshold>-2.2755711078643799e+000</stageThreshold>
      <weakClassifiers>
        <_>
          <internalNodes>
            0 -1 22 -3.8162302225828171e-002</internalNodes>
          <leafValues>
            1.9727891683578491e-001 -9.3957966566085815e-001</leafValues></_>
        <_>
          <internalNodes>
            0 -1 18 -2.5630451738834381e-002</internalNodes>
          <leafValues>
            3.8587751984596252e-001 -8.1894636154174805e-001</leafValues></_>
        <_>
          <internalNodes>
            0 -1 1 -4.3109962716698647e-003</internalNodes>
          <leafValues>
            3.6986774206161499e-001 -8.6903840303421021e-001</leafValues></_>
        <_>
          <internalNodes>
            0 -1 3 -9.5322094857692719e-002</internalNodes>
          <leafValues>
            5.7577061653137207e-001 -7.8486514091491699e-001</leafValues></_></weakClassifiers></_>
    <!-- stage 4 -->
    <_>
      <maxWeakCount>3</maxWeakCount>
      <stageThreshold>-1.5599720478057861e+000</stageThreshold>
      <weakClassifiers>
        <_>
          <internalNodes>
            0 -1 23 4.3380826711654663e-002</internalNodes>
          <leafValues>
            -9.0836483240127563e-001 8.4615385532379150e-001</leafValues></_>
        <_>
          <internalNodes>
            0 -1 2 -8.6461544036865234e-002</internalNodes>
          <leafValues>
            1.7277498543262482e-001 -9.4081902503967285e-001</leafValues></_>
        <_>
          <internalNodes>
            0 -1 25 -2.0527034997940063e-002</internalNodes>
          <leafValues>
            3.3098870515823364e-001 -8.2438218593597412e-001</leafValues></_></weakClassifiers></_>
    <!-- stage 5 -->
    <_>
      <maxWeakCount>3</maxWeakCount>
      <stageThreshold>-1.6499544382095337e+000</stageThreshold>
      <weakClassifiers>
        <_>
          <internalNodes>
            0 -1 42 -3.5036742687225342e-002</internalNodes>
          <leafValues>
            6.7123287916183472e-001 -9.1857504844665527e-001</leafValues></_>
        <_>
          <internalNodes>
            0 -1 12 -4.7298431396484375e-002</internalNodes>
          <leafValues>
            3.1151774525642395e-001 -9.4834405183792114e-001</leafValues></_>
        <_>
          <internalNodes>
            0 -1 20 -2.9827047139406204e-002</internalNodes>
          <leafValues>
            2.1696472167968750e-001 -9.5841658115386963e-001</leafValues></_></weakClassifiers></_>
    <!-- stage 6 -->
    <_>
      <maxWeakCount>4</maxWeakCount>
      <stageThreshold>-2.0892908573150635e+000</stageThreshold>
      <weakClassifiers>
        <_>
          <internalNodes>
            0 -1 33 -3.4150816500186920e-002</internalNodes>
          <leafValues>
            4.9579831957817078e-001 -9.4117647409439087e-001</leafValues></_>
        <_>
          <internalNodes>
            0 -1 21 -5.1559336483478546e-002</internalNodes>
          <leafValues>
            6.4062070846557617e-001 -8.7075674533843994e-001</leafValues></_>
        <_>
          <internalNodes>
            0 -1 35 -1.9431675318628550e-003</internalNodes>
          <leafValues>
            7.8077095746994019e-001 -8.0148965120315552e-001</leafValues></_>
        <_>
          <internalNodes>
            0 -1 15 -3.8314799894578755e-005</internalNodes>
          <leafValues>
            5.2413213253021240e-001 -8.8218665122985840e-001</leafValues></_></weakClassifiers></_>
    <!-- stage 7 -->
    <_>
      <maxWeakCount>3</maxWeakCount>
      <stageThreshold>-1.7488930225372314e+000</stageThreshold>
      <weakClassifiers>
        <_>
          <internalNodes>
            0 -1 24 -2.8496207669377327e-002</internalNodes>
          <leafValues>
            8.0246913433074951e-001 -9.2156863212585449e-001</leafValues></_>
        <_>
          <internalNodes>
            0 -1 0 9.8873081151396036e-004</internalNodes>
          <leafValues>
            -9.2152434587478638e-001 6.5379127860069275e-002</leafValues></_>
        <_>
          <internalNodes>
            0 -1 6 2.8047614614479244e-004</internalNodes>
          <leafValues>
            -8.9270353317260742e-001 1.9388441741466522e-001</leafValues></_></weakClassifiers></_>
    <!-- stage 8 -->
    <_>
      <maxWeakCount>5</maxWeakCount>
      <stageThreshold>-1.7342554330825806e+000</stageThreshold>
      <weakClassifiers>
        <_>
          <internalNodes>
            0 -1 24 -2.8496207669377327e-002</internalNodes>
          <leafValues>
            8.0246913433074951e-001 -8.4045583009719849e-001</leafValues></_>
        <_>
          <internalNodes>
            0 -1 41 4.6291173202916980e-004</internalNodes>
          <leafValues>
            -7.3954099416732788e-001 3.3137628436088562e-001</leafValues></_>
        <_>
          <internalNodes>
            0 -1 4 -8.9327618479728699e-003</internalNodes>
          <leafValues>
            2.6158347725868225e-001 -9.6647858619689941e-001</leafValues></_>
        <_>
          <internalNodes>
            0 -1 11 -4.8311561113223433e-004</internalNodes>
          <leafValues>
            4.3619632720947266e-001 -7.5490880012512207e-001</leafValues></_>
        <_>
          <internalNodes>
            0 -1 10 3.2602231949567795e-002</internalNodes>
          <leafValues>
            3.3906668424606323e-001 -9.1829282045364380e-001</leafValues></_></weakClassifiers></_>
    <!-- stage 9 -->
    <_>
      <maxWeakCount>4</maxWeakCount>
      <stageThreshold>-7.8740149736404419e-001</stageThreshold>
      <weakClassifiers>
        <_>
          <internalNodes>
            0 -1 34 5.0241383723914623e-004</internalNodes>
          <leafValues>
            -8.2203388214111328e-001 5.3672313690185547e-001</leafValues></_>
        <_>
          <internalNodes>
            0 -1 19 -6.6176764667034149e-003</internalNodes>
          <leafValues>
            -9.3442547321319580e-001 4.5845267176628113e-001</leafValues></_>
        <_>
          <internalNodes>
            0 -1 8 -3.8080874830484390e-002</internalNodes>
          <leafValues>
            4.9707734584808350e-001 -7.8926736116409302e-001</leafValues></_>
        <_>
          <internalNodes>
            0 -1 37 -1.6026040539145470e-003</internalNodes>
          <leafValues>
            4.7198051214218140e-001 -8.5260426998138428e-001</leafValues></_></weakClassifiers></_>
    <!-- stage 10 -->
    <_>
      <maxWeakCount>3</maxWeakCount>
      <stageThreshold>3.7143681198358536e-002</stageThreshold>
      <weakClassifiers>
        <_>
          <internalNodes>
            0 -1 31 8.8482461869716644e-003</internalNodes>
          <leafValues>
            6.9398909807205200e-001 -9.2857140302658081e-001</leafValues></_>
        <_>
          <internalNodes>
            0 -1 38 -3.5175479948520660e-002</internalNodes>
          <leafValues>
            -9.8109811544418335e-001 5.3236919641494751e-001</leafValues></_>
        <_>
          <internalNodes>
            0 -1 27 4.1843126527965069e-003</internalNodes>
          <leafValues>
            -9.4405305385589600e-001 4.3334594368934631e-001</leafValues></_></weakClassifiers></_>
    <!-- stage 11 -->
    <_>
      <maxWeakCount>3</maxWeakCount>
      <stageThreshold>6.8495947122573853e-001</stageThreshold>
      <weakClassifiers>
        <_>
          <internalNodes>
            0 -1 30 1.4016943983733654e-002</internalNodes>
          <leafValues>
            -6.6666668653488159e-001 9.1194969415664673e-001</leafValues></_>
        <_>
          <internalNodes>
            0 -1 32 1.1847438663244247e-001</internalNodes>
          <leafValues>
            7.2647643089294434e-001 -1.</leafValues></_>
        <_>
          <internalNodes>
            0 -1 39 8.9538604021072388e-002</internalNodes>
          <leafValues>
            6.2514966726303101e-001 -9.4580221176147461e-001</leafValues></_></weakClassifiers></_>
    <!-- stage 12 -->
    <_>
      <maxWeakCount>1</maxWeakCount>
      <stageThreshold>1.</stageThreshold>
      <weakClassifiers>
        <_>
          <internalNodes>
            0 -1 26 -1.2669915333390236e-002</internalNodes>
          <leafValues>
            -1. 1.</leafValues></_></weakClassifiers></_></stages>
  <features>
    <_>
      <rects>
        <_>
          0 0 6 3 -1.</_>
        <_>
          2 0 2 3 3.</_></rects>
      <tilted>0</tilted></_>
    <_>
      <rects>
        <_>
          0 0 8 4 -1.</_>
        <_>
          0 0 4 2 2.</_>
        <_>
          4 2 4 2 2.</_></rects>
      <tilted>0</tilted></_>
    <_>
      <rects>
        <_>
          0 0 11 18 -1.</_>
        <_>
          0 9 11 9 2.</_></rects>
      <tilted>0</tilted></_>
    <_>
      <rects>
        <_>
          0 0 13 16 -1.</_>
        <_>
          0 8 13 8 2.</_></rects>
      <tilted>0</tilted></_>
    <_>
      <rects>
        <_>
          0 0 21 14 -1.</_>
        <_>
          0 7 21 7 2.</_></rects>
      <tilted>0</tilted></_>
    <_>
      <rects>
        <_>
          0 1 9 16 -1.</_>
        <_>
          0 9 9 8 2.</_></rects>
      <tilted>0</tilted></_>
    <_>
      <rects>
        <_>
          0 2 2 9 -1.</_>
        <_>
          0 5 2 3 3.</_></rects>
      <tilted>0</tilted></_>
    <_>
      <rects>
        <_>
          0 2 24 3 -1.</_>
        <_>
          12 2 12 3 2.</_></rects>
      <tilted>0</tilted></_>
    <_>
      <rects>
        <_>
          0 2 24 5 -1.</_>
        <_>
          12 2 12 5 2.</_></rects>
      <tilted>0</tilted></_>
    <_>
      <rects>
        <_>
          0 3 24 1 -1.</_>
        <_>
          12 3 12 1 2.</_></rects>
      <tilted>0</tilted></_>
    <_>
      <rects>
        <_>
          0 5 24 8 -1.</_>
        <_>
          0 9 24 4 2.</_></rects>
      <tilted>0</tilted></_>
    <_>
      <rects>
        <_>
          0 11 4 4 -1.</_>
        <_>
          0 13 4 2 2.</_></rects>
      <tilted>0</tilted></_>
    <_>
      <rects>
        <_>
          1 0 14 10 -1.</_>
        <_>
          1 5 14 5 2.</_></rects>
      <tilted>0</tilted></_>
    <_>
      <rects>
        <_>
          1 3 14 21 -1.</_>
        <_>
          1 10 14 7 3.</_></rects>
      <tilted>0</tilted></_>
    <_>
      <rects>
        <_>
          1 14 15 10 -1.</_>
        <_>
          1 19 15 5 2.</_></rects>
      <tilted>0</tilted></_>
    <_>
      <rects>
        <_>
          1 20 10 1 -1.</_>
        <_>
          6 20 5 1 2.</_></rects>
      <tilted>0</tilted></_>
    <_>
      <rects>
        <_>
          2 0 7 24 -1.</_>
        <_>
          2 8 7 8 3.</_></rects>
      <tilted>0</tilted></_>
    <_>
      <rects>
        <_>
          2 14 12 6 -1.</_>
        <_>
          2 17 12 3 2.</_></rects>
      <tilted>0</tilted></_>
    <_>
      <rects>
        <_>
          2 15 22 4 -1.</_>
        <_>
          2 15 11 2 2.</_>
        <_>
          13 17 11 2 2.</_></rects>
      <tilted>0</tilted></_>
    <_>
      <rects>
        <_>
          2 16 21 8 -1.</_>
        <_>
          9 16 7 8 3.</_></rects>
      <tilted>0</tilted></_>
    <_>
      <rects>
        <_>
          3 0 8 8 -1.</_>
        <_>
          3 4 8 4 2.</_></rects>
      <tilted>0</tilted></_>
    <_>
      <rects>
        <_>
          3 0 20 6 -1.</_>
        <_>
          3 3 20 3 2.</_></rects>
      <tilted>0</tilted></_>
    <_>
      <rects>
        <_>
          3 3 1 21 -1.</_>
        <_>
          3 10 1 7 3.</_></rects>
      <tilted>0</tilted></_>
    <_>
      <rects>
        <_>
          3 3 4 12 -1.</_>
        <_>
          3 3 2 6 2.</_>
        <_>
          5 9 2 6 2.</_></rects>
      <tilted>0</tilted></_>
    <_>
      <rects>
        <_>
          3 4 9 2 -1.</_>
        <_>
          6 4 3 2 3.</_></rects>
      <tilted>0</tilted></_>
    <_>
      <rects>
        <_>
          3 11 5 9 -1.</_>
        <_>
          3 14 5 3 3.</_></rects>
      <tilted>0</tilted></_>
    <_>
      <rects>
        <_>
          3 11 18 1 -1.</_>
        <_>
          9 11 6 1 3.</_></rects>
      <tilted>0</tilted></_>
    <_>
      <rects>
        <_>
          3 13 12 3 -1.</_>
        <_>
          9 13 6 3 2.</_></rects>
      <tilted>0</tilted></_>
    <_>
      <rects>
        <_>
          3 15 12 2 -1.</_>
        <_>
          9 15 6 2 2.</_></rects>
      <tilted>0</tilted></_>
    <_>
      <rects>
        <_>
          3 15 18 2 -1.</_>
        <_>
          9 15 6 2 3.</_></rects>
      <tilted>0</tilted></_>
    <_>
      <rects>
        <_>
          4 0 16 16 -1.</_>
        <_>
          4 0 8 8 2.</_>
        <_>
          12 8 8 8 2.</_></rects>
      <tilted>0</tilted></_>
    <_>
      <rects>
        <_>
          4 7 16 16 -1.</_>
        <_>
          4 7 8 8 2.</_>
        <_>
          12 15 8 8 2.</_></rects>
      <tilted>0</tilted></_>
    <_>
      <rects>
        <_>
          5 7 18 8 -1.</_>
        <_>
          11 7 6 8 3.</_></rects>
      <tilted>0</tilted></_>
    <_>
      <rects>
        <_>
          6 14 6 10 -1.</_>
        <_>
          8 14 2 10 3.</_></rects>
      <tilted>0</tilted></_>
    <_>
      <rects>
        <_>
          7 6 3 9 -1.</_>
        <_>
          7 9 3 3 3.</_></rects>
      <tilted>0</tilted></_>
    <_>
      <rects>
        <_>
          8 22 16 1 -1.</_>
        <_>
          16 22 8 1 2.</_></rects>
      <tilted>0</tilted></_>
    <_>
      <rects>
        <_>
          9 5 15 11 -1.</_>
        <_>
          14 5 5 11 3.</_></rects>
      <tilted>0</tilted></_>
    <_>
      <rects>
        <_>
          10 0 14 4 -1.</_>
        <_>
          17 0 7 4 2.</_></rects>
      <tilted>0</tilted></_>
    <_>
      <rects>
        <_>
          13 3 10 13 -1.</_>
        <_>
          18 3 5 13 2.</_></rects>
      <tilted>0</tilted></_>
    <_>
      <rects>
        <_>
          14 0 10 16 -1.</_>
        <_>
          19 0 5 16 2.</_></rects>
      <tilted>0</tilted></_>
    <_>
      <rects>
        <_>
          14 3 9 8 -1.</_>
        <_>
          14 7 9 4 2.</_></rects>
      <tilted>0</tilted></_>
    <_>
      <rects>
        <_>
          16 19 2 4 -1.</_>
        <_>
          16 21 2 2 2.</_></rects>
      <tilted>0</tilted></_>
    <_>
      <rects>
        <_>
          18 2 6 8 -1.</_>
        <_>
          18 2 3 4 2.</_>
        <_>
          21 6 3 4 2.</_></rects>
      <tilted>0</tilted></_></features></cascade>
</opencv_storage>
